,AA,AB,ABM,ABT,ADM,ADX,AEG,AEM,AFG,AFL,AIG,AIN,AIR,AIT,AJG,ALE,ALK,ALX,AME,AON,AOS,AP,APD,ARL,ARW,ASA,ASB,ASG,ASH,ATO,AVA,AVD,AVY,AWR,AXP,AXR,AZZ,BA,BAC,BALL,BAX,BBVA,BBWI,BBY,BC,BCE,BCS,BDN,BDX,BEN,BH,BHP,BIO,BK,BKH,BKT,BMI,BMY,BN,BOH,BP,BPT,BRC,BRO,BRT,BTI,BXMT,C,CACI,CADE,CAG,CAH,CAL,CAT,CATO,CBT,CBU,CCK,CCL,CCRD,CDE,CFR,CHD,CHE,CI,CIA,CIF,CL,CLF,CLH,CLX,CMA,CMC,CMI,CMS,CMU,CNA,CNMD,CNP,COHR,COP,CP,CPK,CRH,CRK,CRS,CSL,CTO,CTS,CULP,CUZ,CVS,CVX,CW,CWT,CXE,CXH,CXT,D,DCI,DCO,DD,DDD,DDS,DE,DHR,DINO,DIS,DLX,DNP,DOC,DOV,DSM,DTE,DUK,DVN,DX,DXC,DY,EAT,EBF,ECL,ED,EEA,EFX,EGP,EHC,EIX,ELME,EMF,EMR,ENB,ENZ,EOG,EQC,EQT,ES,ETN,ETR,EXPD,F,FBP,FDX,FHN,FI,FICO,FL,FLO,FLS,FMC,FNB,FRT,FSS,FT,FUL,FUN,GAB,GAM,GAP,GATX,GBCI,GCO,GD,GE,GFF,GFI,GGG,GHC,GHI,GHM,GIS,GL,GLW,GOLD,GPC,GRC,GSK,GTY,GWW,HAL,HD,HE,HEI,HES,HL,HMC,HNI,HOG,HOV,HP,HPQ,HQH,HRB,HRL,HSY,HUBB,HUM,HVT,HXL,IBM,IDA,IEX,IFF,IP,IPG,ITW,J,JCI,JEF,JHI,JHS,JMM,JNJ,JPM,JWN,K,KBH,KEX,KEY,KF,KGC,KMB,KMT,KO,KR,KTF,KWR,L,LCII,LEG,LEN,LEO,LHX,LLY,LMT,LNC,LNN,LOW,LPX,LUMN,LUV,LXU,LZB,MAN,MAS,MATX,MBI,MCD,MCI,MCR,MCS,MCY,MDT,MDU,MEI,MFM,MGA,MGF,MGM,MHF,MIN,MKC,MKL,MMC,MMM,MMT,MO,MOD,MOS,MPV,MRK,MSA,MSB,MSI,MTB,MTH,MTR,MTRN,MTZ,MUR,MUX,MVF,MXF,MYE,NBR,NC,NCA,NEE,NEM,NEU,NFG,NI,NJR,NKE,NL,NMI,NNN,NNY,NOC,NPK,NRT,NSC,NUE,NUV,NVO,NVR,NVRI,NWN,NX,ODC,OFG,OGE,OIA,OII,OKE,OLN,OLP,OMC,OMI,OPY,ORCL,ORI,OSK,OXM,OXY,PAI,PAR,PBI,PBT,PCF,PCG,PDT,PEG,PEO,PFE,PG,PGR,PH,PHG,PHI,PHM,PII,PIM,PKE,PMM,PNC,PNR,PNW,PPG,PPL,PPT,PRG,PSA,PVH,R,RAMP,RES,REX,RF,RGR,RHI,RJF,RLI,ROG,ROK,ROL,RPM,RRC,RRX,RTX,RVT,RVTY,SABA,SAFE,SAN,SBR,SCHW,SCI,SCL,SEE,SF,SHEL,SHW,SIG,SJT,SLB,SMP,SNA,SNV,SO,SON,SONY,SOR,SPB,SPGI,SPXC,SR,SSL,STC,STEW,STT,SU,SUP,SWK,SWX,SWZ,SXI,SXT,SYK,SYY,T,TAP,TCI,TDS,TDW,TEF,TEVA,TEX,TFC,TFX,TG,TGNA,TGT,THC,THO,TISI,TJX,TKR,TM,TMO,TNC,TOL,TPC,TPL,TR,TRN,TRP,TRV,TSI,TSN,TT,TTC,TWN,TXNM,TXT,TY,TYL,UDR,UFI,UGI,UHS,UHT,UIS,UL,UMH,UNF,UNH,UNM,UNP,USA,USB,USM,UTL,UVV,VBF,VFC,VHI,VLO,VLT,VMC,VMI,VNO,VSH,VZ,WBS,WEC,WELL,WFC,WGO,WHR,WKC,WLY,WLYB,WM,WMB,WMK,WMT,WOR,WPP,WRB,WSM,WSO,WST,WTM,WTRG,WTS,WWW,WY,XOM,ZTR
2010,-1.328101911385967e-13,-1.56234434884306e-13,0.004123507768029446,8.201406733266958e-13,-3.418011189586063e-14,8.954888629643185e-14,-2.870504111943923e-13,0.0034615521572531737,,-1.0752587193657541e-13,,,-1.1218706126565654e-14,-4.265205267631316e-14,0.003596118476272422,2.5094578373175256e-13,-6.725167413869743e-14,0.001565236906800198,9.0476820463072e-13,0.0004669835227049428,1.2370677102922658e-12,4.508333557796805e-14,-7.901315524763488e-14,0.00861509269238259,0.0009660326504816601,0.005108983755896639,-1.4893629911707185e-14,7.814830634067564e-15,-4.579490591031462e-14,0.0015839398667178287,0.0007604405842028212,0.002763477030831964,1.1174498989249882e-13,0.0008096338853828429,-1.8085249119941868e-13,0.006162113187214719,6.15613841732267e-14,-1.4479344751929062e-13,-3.137244270083908e-13,0.0001905419815721643,5.5106572378961153e-05,9.840240212948676e-14,-2.5192579994923595e-13,0.002727898650347778,-6.34142855716653e-13,0.0017062295636301,-2.1580666720318774e-13,0.0005163329017845047,0.0011339291658629498,0.001845000106213685,0.00025026789055259817,-1.0371954870884561e-13,0.0003140441054782043,-6.718770105100518e-14,0.0004986906094936036,0.017230528477495382,0.00022017683793051777,2.1111067118776912e-13,2.213658175854042e-13,1.0983826469730418e-13,1.4661734639432947e-15,0.005546592810880926,7.134411101492036e-13,0.003966847064511123,,0.00038212288666846113,4.6578880914343963e-14,-1.066029400677227e-13,0.001246927443953696,2.2311966066304638e-12,1.4934930617742123e-13,-5.5507686111779645e-15,-3.0813987986941513e-13,-1.5771515182263706e-14,0.004671570907375246,3.0449105748782135e-14,0.00401402854841308,2.1598262183170027e-13,-1.560337071887669e-14,0.0005433700248247081,-4.8725236306489934e-14,0.002296775858001768,0.004019715422954866,0.008365204017377472,-8.478942332797184e-14,-6.480806082593666e-14,0.001116136747745963,1.1435470724114367e-12,0.00030677144541708,0.0012651129184353454,0.004981097837576938,-3.021752688702328e-13,-1.1865721642508452e-13,-4.874042888010763e-14,,1.5516732029023115e-13,,0.0018861022405364794,0.0027844509019371304,0.0006669961576759353,-1.4701074330973006e-13,5.3242657204557486e-14,0.004425153368535561,0.0017938357198594337,1.6401714194118764e-13,-1.5029855250284802e-13,2.477966621158092e-13,0.0032423091674248948,0.001766624323306535,7.814874377926757e-14,-2.9278423439043026e-14,3.7684636718047785e-14,-7.083728746525076e-14,0.00043609186646879314,0.0009729719988496082,0.02797272053209631,0.010713128418830159,-2.884616355594132e-14,6.204331274686269e-14,7.080628078703162e-13,-1.505816412854555e-13,-1.4772859299475153e-13,-6.663049480610712e-14,-1.779715390902937e-13,-1.3397596112992432e-13,2.7784432304354617e-13,0.002568665423424204,-2.90303604562392e-14,-8.846420169995028e-14,0.000802734425712152,4.1847900254109906e-14,-4.4406296526208097e-14,1.7658433975793116e-11,2.0394202711601741e-13,1.0479332884842781e-13,5.820299819781716e-14,0.008976761287918866,-6.61450425892806e-14,-2.375951141274773e-13,3.080372317849841e-14,-9.932369687180464e-15,2.4908132486980947e-13,0.00015743990745382237,-1.7343971853632248e-14,1.328404584377921e-13,2.054772673220756e-13,0.002172733735845306,0.001281307682490168,4.8314618286979973e-14,-7.573574634220218e-14,-1.3655025069786092e-13,0.008036905284919703,-9.854850833408259e-14,4.6412393682746775e-14,-1.972691338405188e-13,8.743456150797872e-14,9.113877056515972e-14,1.1745128785720284e-13,-6.011125457455925e-15,0.000723609955551121,-7.575518825555938e-14,0.00045776296190943086,-2.4931421095879837e-14,-1.7293086061872006e-13,0.00010006290475824493,0.005584623896525976,-9.11873051406255e-13,0.001339764987443203,-6.582322041484017e-14,-1.1475540486909917e-13,,-3.4407133374518834e-14,-3.1788878513155843e-13,0.0044898694699492024,1.9566309040319532e-13,0.003108009314683114,,1.636148586954686e-13,0.0016535940932697812,5.242600923895474e-14,6.838646057146277e-05,0.004132203464414173,0.0030577091740483175,2.137892269048961e-12,1.3314515268742622e-12,1.9023777907942873e-12,2.3333224092890613e-13,9.37087782896531e-15,0.003274481426823431,-1.4772951458629628e-13,0.00860987625637882,-5.722870790120284e-14,5.334506999242042e-14,0.0027500923500710403,1.926673078656492e-12,1.1461679434807492e-13,1.73617905078131e-13,1.343608617120783e-13,4.035980517962857e-13,-1.3160209500188105e-13,-1.1000039443349241e-13,0.0052161278401994995,0.0034559263404251965,-1.3197842392184866e-13,-4.457532598222192e-14,7.378402162762702e-13,7.603202582300557e-14,-6.90534542998906e-14,-6.403199769908075e-14,-5.138505800398215e-15,1.0244852585017328e-13,-1.4016279764802458e-14,-5.602975005022622e-14,0.0070565516425528255,0.003203543525465424,0.0019392862249120975,-3.525204768284043e-14,3.23118040626734e-14,-1.1560163960282208e-13,2.052464059751254e-12,0.00026607400967879573,9.065849951966037e-14,5.728704408147871e-14,,,5.54240390816289e-14,-8.124448137320085e-14,-3.0445860129121505e-13,-8.83566007006602e-14,0.02851363469018738,0.007561979669118693,0.012600616388233222,0.0008543750481613436,-1.3063316777234798e-13,-2.889886663854145e-15,1.3009546767212346e-11,-3.591282749891104e-14,8.183606797248261e-15,,-1.2160276593299772e-13,0.01762294029332592,5.858835483034282e-13,-3.174416116743663e-14,6.774169170053193e-13,0.00023690246931711112,0.011446508618214415,-1.4247445241736622e-13,-6.863448996640396e-14,0.0001954037980861756,-1.2138144091126781e-14,-7.763291432653523e-14,0.001784200626723354,0.0012743804406755448,4.668446246309165e-13,0.0007859183746796164,-5.947709444320595e-13,2.052127237393303e-13,0.007086570762589866,-2.4031575400451594e-13,3.569211927121309e-13,1.0225423875858833e-14,0.004481435424422042,-4.0299167518984567e-14,-5.055235757161702e-14,-1.6370634925290723e-14,-9.46930622367814e-14,,0.00033234873175710234,0.02283664749630078,0.02073447336613783,-1.6162280302027037e-13,2.7271238485545837e-13,0.00031448996573916923,0.0003565027521907589,0.003943607753611978,0.004940636908309702,9.736886038486112e-14,0.0328604670773151,3.1440862420326506e-13,0.03525336585104545,0.028354550837482555,0.0035214229444651838,0.00731872510298857,1.932784042864504e-13,0.0004426341881885906,0.004340189516428263,0.000489838791976829,-2.339901892642357e-13,-2.4368914805533423e-13,0.00926447147131602,4.7001544831758115e-14,0.0004924221431723524,7.554652301784058e-14,-7.183532442034347e-14,7.516241700796147e-14,0.0003074174283684009,0.011605260191804505,-1.9892696095710447e-13,7.68156069435415e-15,1.0145230196268419e-13,0.0029503515816015494,0.019788724370012507,-4.100851793787527e-14,-6.524844226720619e-14,-2.28038903352328e-13,-4.0003769670358886e-14,2.246680871956978e-13,1.96675011495212e-14,0.0007963900519061561,3.661552555164848e-13,-2.760336527998095e-14,8.730303679319733e-14,0.0021743625757723603,0.00010564026441257368,-5.996396483128575e-14,0.03520942889792752,5.353412710112444e-13,0.03240323444862372,0.0022164129485163584,0.006143448713717238,0.015435068992260107,7.584389693584518e-14,-6.633727819968583e-14,0.035666735990211904,0.004350856340766693,,-6.873729709315545e-14,0.0006931394648717219,-7.694423399101531e-14,2.2543074624796512e-13,0.001085209781438685,6.952664168014073e-14,0.006603190905896734,-2.2926405466704555e-13,8.98061327835499e-14,5.114723535042646e-13,,2.4717040603185073e-13,0.0014425029924541165,2.7615096335232964e-13,0.0013959503630164246,-1.0999273205581984e-13,9.58391617059504e-14,9.365659107165055e-13,-1.9594716773945822e-14,0.023762530426290052,2.739894394586867e-12,2.1563388020827702e-13,0.0036501068477052916,0.010212873150182088,0.0012081358585173984,1.955580276817396e-14,4.1713345692372573e-14,-6.897905628433126e-14,4.321297502485264e-13,0.0021930333335310466,1.873932386988852e-05,-1.3706226358159733e-13,-1.472549861130709e-13,0.002119598430821546,-8.870198311275749e-14,-7.469322887918666e-14,0.007050342570234613,2.875936404695967e-13,0.012620426928587464,-2.0174211715602636e-13,7.760833872442026e-14,0.00018365970457894122,6.375091640166734e-14,5.856242468930058e-13,0.0012360364073049808,0.004395902573016997,2.8382977295418225e-13,-9.467141673933602e-14,-1.2071328515320116e-13,0.001335959145258421,0.00038461731897439314,2.369968817998079e-13,-3.0495637668263675e-13,,-4.4621881708486246e-15,-1.6197898709559615e-13,0.0008056999460620865,2.0298369406459386e-13,0.0030076912437970744,0.00030484964716672185,-6.226792102847901e-14,0.0028803498876413982,7.990939141363996e-12,7.024742982877741e-14,-2.1153068706326772e-14,1.4138773254167556e-13,0.006255334103648651,-2.5202791394934357e-14,-7.658816009112967e-14,0.003873661849071122,0.00015831905554154557,0.0005760033612613128,0.0005885065072955595,0.0006248414327164924,-8.919297346025779e-15,-1.4529840177053805e-13,8.489803483380622e-13,5.809619315863537e-06,2.777365951447277e-13,-1.922932824354713e-13,0.0009038210856906604,3.1325947651761615e-14,-2.3487594887854684e-13,0.0060927373746259466,3.080169368418667e-13,,0.0022204988965568904,-5.663013067775452e-15,0.0017628996731065274,8.050585501586062e-14,1.381307237704345e-13,-1.1908409290555333e-13,0.0030194036882083657,,-3.708708942328203e-13,6.400422205654906e-13,-4.749869562939424e-14,1.3203836936872169e-13,8.016808611760701e-13,1.597135464267666e-12,2.824215869191238e-13,1.6110795516495415e-13,0.004513490539861328,2.148891916403236e-12,0.00020620367406835673,0.0036596838295904137,0.017471907363741285,-7.617595387471744e-15,-1.1520965156855216e-13,1.3807876433167216e-13,0.004404004542171735,-2.1882324655598328e-14,3.973525307859715e-14,0.00035426219911189515,0.00019831542468563316,-1.0669793673725354e-13,-8.115436420379179e-14,,0.003633896548755562,0.00022108185568296164,2.271119980121553e-14,-8.533818214158481e-14,1.3097974814042e-13,8.331788437309813e-14,0.00018663530032039978,-4.4643165671923255e-14,-2.1137029373215322e-13,0.008528047050176107,0.001419889109129962,-2.5850960645104604e-13,0.0015176856571079012,-5.92100818657321e-14,0.0033797010305164107,,-3.5769881392363256e-13,6.368546913346632e-05,,1.125242805530212e-13,-1.291993538916088e-13,8.429079074511e-13,0.0005168865611103115,-4.985112798149436e-14,,0.0004699172876764816,0.0034807615582384595,0.00038328607816702905,-1.9784526347928622e-13,9.71464569752125e-13,0.011453535208995246,5.606578525798153e-16,0.003031322552431251,-2.4579740552870365e-13,0.0034578203214342866,-3.3303327057613505e-14,-7.763404087330314e-14,-2.740087081457669e-14,0.017408775866146944,0.0016767529179407168,0.04207474304910721,0.008325822037148689,-2.5133065797178553e-14,-2.788438687646019e-14,5.3311040548497913e-14,1.3343530671985639e-13,-6.753900046965267e-14,-1.9050331843604667e-14,-1.9264684224567945e-13,0.00043567548964053917,-1.3980484072962831e-13,0.0006458178972609038,7.920596318496338e-13,-1.2579005211861512e-13,-6.7944042335074114e-15,1.4075888044569492e-13,0.0021150443372500182,0.00019370465617352063,0.00666858402106072,0.0013666114224195143,-2.795776697796289e-13,,0.005487491492415696,-3.2451704233251684e-13,-6.758210250127396e-14,0.0020124542327926037,-1.0591296069859845e-13,0.01113449499651337,0.002210265804575789,0.018212399227306286,0.0026702865293806136,,0.00020305757281613006,3.10508554165242e-14,5.20104333360484e-13,5.1111388748772937e-14
2011,-1.8856091364456715e-14,-1.318099807506079e-13,0.000102016091436861,0.0006608093240159864,-5.032164911471197e-14,2.3068228793211336e-13,,0.00190837238899234,-1.5277417444096785e-14,-9.272262650603356e-14,0.002410876978603798,5.3098383487448385e-15,-9.898538150544414e-14,-6.367924420929243e-14,0.00034627716461053915,1.8893420171370494e-14,-8.909773765359673e-14,0.05114905015104914,6.192744441916327e-05,0.0006866276111998496,0.0012325496382624682,-2.935757841437789e-14,-5.626813801817522e-14,0.019380875976438963,6.931026624065417e-05,,-5.1126789913794444e-14,-5.811268987164705e-14,8.545878300048084e-15,0.00279875070010203,4.939669495220528e-13,0.00017046288866589247,-6.881361172435618e-14,0.0002275747155928307,-1.0632345724035409e-13,1.2699772595661434e-14,0.010890965032441068,2.512845798565217e-13,-1.769450282781857e-13,4.139540898759423e-13,0.000303279524366924,-4.155571874781656e-14,-3.314218959400169e-14,0.001059539957446427,,0.003701900325832573,-1.0056035045766008e-13,1.643099640536523e-15,0.002523395935502966,-1.2045869724121375e-13,0.0006679073174375936,-4.9104272935920975e-14,0.0005672274856496709,1.937148228049865e-13,2.7767434432273867e-13,0.015852581798025966,0.0007944422797241186,0.014850388194705673,-1.1216258306388504e-13,-7.35526950729244e-14,-2.99513097713696e-14,0.0058330826305144565,-7.68182000147157e-14,0.002866422965130773,0.013241255126952362,0.0027100730545627756,,-2.723845489243156e-13,0.007346532749812187,4.29430877078664e-13,0.000994645865327798,0.0006003320476224221,-7.970903326456104e-14,-1.1185249036395864e-13,0.0027421019447147455,-5.865938837457646e-14,1.0131335526389309e-12,3.572005963519993e-14,-8.663908491168931e-14,0.009063207443920729,,2.0755849199429329e-13,0.0020213240003184078,0.003651251992221668,5.006259061957059e-14,1.9292663219230946e-13,0.0013370903620860057,0.0006308044197902429,0.001635742602580514,0.0023846918911699716,0.003476299857509693,-1.9421615868084427e-13,-9.727309599217275e-14,-5.026164223084271e-14,4.513944752541877e-15,,-1.8358400406290604e-13,1.653520209080381e-12,3.840720022747085e-14,0.011408139570071934,-2.1507332945988545e-14,1.3025359036289747e-14,0.004995632457557088,4.680317525452847e-05,-1.174668582178992e-13,-9.470009145578533e-14,3.239814424664988e-14,-8.032847281693453e-14,-9.517005702344783e-14,0.0031883388578748326,-1.3833155326273187e-13,1.215278641597076e-13,5.818744164404423e-14,1.1920947093434264e-13,0.0038425748858670282,,0.009845324402044409,-7.034438000862413e-14,5.241685719451542e-13,4.7870035847040036e-14,3.0415929395054766e-13,-6.1996436910749745e-15,0.011006399230831203,-1.2934750920671507e-13,-9.071154696486461e-14,3.333710304476242e-13,0.0002540065816121271,2.3070807656146737e-13,-1.2161860579838602e-14,0.005347552070002388,-5.5505720716910174e-15,-2.9648953999696324e-14,0.04038831367398425,5.595868230493126e-14,1.8110739436026951e-12,0.0016144314766070229,,3.546396467821613e-14,-2.0351061744419005e-13,-7.466039416945474e-15,-3.6370378371000986e-13,9.610558153835338e-05,0.0010460656831869277,,3.0117363134961886e-14,7.653130717294637e-14,0.021796311724567113,0.0004227552714306333,-4.5338543813176656e-14,-1.1982307027454702e-13,-8.002398631269242e-14,0.004053100366143743,-1.1961269301429458e-13,-7.639977315058602e-14,,-5.2033778526724896e-14,0.012855210331908269,1.0525450663112067e-11,2.267232822823671e-13,0.00030416168667610276,0.00019356188685323953,-1.9026648783640714e-13,6.881504859721366e-13,5.746944395618089e-13,1.932678747373292e-12,9.466732708586999e-05,,0.002579490166961053,-8.532992305022306e-14,-2.8833380729448016e-14,,1.4042810692171846e-14,5.184347101666861e-16,0.0018262550535962203,2.141907045333865e-14,0.004318295919087364,,6.31205725928192e-14,4.767237858124229e-14,-6.307533694692461e-14,-8.09605009497415e-14,0.00036485879441762345,0.0007290956347444548,-5.308880414073314e-14,-2.067427181088951e-13,-5.97551509903536e-13,5.805500879661378e-14,,2.98075685268058e-12,-3.263159221258579e-14,0.01094023064050845,-1.1286108509899134e-13,-5.974772590936168e-14,-2.839977981577391e-13,0.0005393621734367509,-4.984865446229493e-14,0.00017455228567679924,3.222628284020544e-13,4.3295718209367605e-13,-1.2921373572074844e-13,-9.242486621151768e-14,0.006494458805124837,0.0033803305273613694,-8.831582120457576e-14,-1.542400874551438e-14,0.0001737898020057878,-3.1336562099151127e-15,-8.866907110062222e-14,-5.581073225828851e-14,-8.83637543630803e-14,2.017820251880728e-13,1.9060292273797935e-14,1.984355328739544e-14,0.010670824511959803,0.008371305732672819,5.253432131843955e-13,1.3987627325379503e-14,0.0003980202793058516,-4.178248821470915e-14,0.000875855139670802,-7.820827059628322e-14,1.4797022488511868e-13,1.3412018483493294e-13,,1.8681445382184396e-13,1.6168824430415216e-14,-8.20279750126628e-14,4.279704877913443e-12,-9.979314949551453e-14,0.007829050309372735,0.0037354256179547066,3.67887492350119e-12,0.0020264485946149356,-1.3584897601625523e-13,0.00017463766316546607,0.0006513571572135561,-6.861263580384119e-14,3.3231392643277135e-13,-1.8349432252500455e-13,-2.1739443242621673e-13,5.14456149879704e-14,5.411900886706533e-12,-1.1903488462346497e-13,0.0011357699061854964,0.0005178133485780058,2.473696149236405e-12,1.239280069868483e-14,-9.072743968101564e-14,-1.5061825361223754e-14,5.117969883461846e-13,-1.3676141475459503e-13,0.034791458512640816,-4.7914478829362316e-15,7.531277087520103e-15,0.003990912492540662,-4.876168326453869e-13,0.0003912420833715122,0.00182755814475967,,0.00040216868722645706,-1.9721111803821776e-13,0.0001983298111705023,1.9445925077818765e-14,-8.520661398739168e-14,-1.0584113941717936e-13,,-4.465528970920315e-16,0.0041521124715235445,0.02628712782906447,0.029029790950486745,-1.5825526404235322e-13,3.3754987412148495e-13,0.0009790122728518384,-1.7487010197359735e-14,-1.5237024491957684e-13,5.543250785079405e-12,8.791074383641594e-14,0.027028383763501113,6.9245053695915564e-15,0.015865894924985306,0.016832590014283916,0.003128672459905899,0.005975766269828308,-1.808337502113282e-13,0.0004805666512373346,0.011786745351018653,0.002770149197789869,0.0050961301339796415,-2.7646395663479744e-14,0.011838006404559035,-1.4615136512354772e-13,-1.6895856848945987e-13,5.168006988754977e-05,1.1245266921747356e-14,8.333448694282907e-14,-1.0503409145787896e-13,0.017916194188343698,1.078172562394015e-12,1.1645996456464235e-11,-5.338009875112816e-14,0.003970393153931872,0.021691559949913338,-8.191975421337565e-14,-4.466149387866651e-14,-1.0992648578449979e-13,-1.1053674917588243e-13,0.009752213623651798,6.036016784916551e-13,,0.00028538254689984495,1.3959896787682159e-14,-3.263187234705667e-14,0.006637460046804983,2.5928366013533e-13,-3.242901401128051e-14,0.010702742379456561,2.6407995319678646e-14,0.03177866066482849,0.0004977307643948209,8.223214706515457e-13,0.01256246908193484,-3.311593709239656e-14,3.520692417828205e-14,0.02710593678623857,0.006951549432781833,5.128011470347965e-05,1.4090866209864306e-13,5.571831294973775e-14,-3.671976698568679e-14,-1.3626207391106956e-13,0.0010898319251850745,7.884367111070876e-14,2.661526345864642e-13,-2.762503761084605e-14,-8.568009414135945e-14,-2.271431808432895e-14,0.0012109997580149415,3.376951803488326e-05,0.000178053108322206,-1.294193462674949e-14,2.9250523261811108e-05,-5.99335491568765e-14,0.00033770763039597573,-2.028494666715938e-14,-4.34238317662902e-14,0.023398929354191116,-3.8116103488805165e-14,2.7177952273030107e-13,0.0008422404521030361,0.0032775038658246374,4.842602722158558e-13,0.0006515989439588841,7.975821350051932e-15,0.00024827752760427644,1.0803784816994199e-13,0.002132774064639566,-3.0962092685515283e-14,-7.844196395344822e-14,-1.3769293797923491e-13,0.00032830951578307976,-3.995012781281396e-14,0.002864093127962958,0.013934664551090577,2.6898904339398345e-14,,-9.840738375313558e-14,0.0008084437772727652,3.1592674162428924e-12,-3.1874935060726426e-14,2.2660084678987057e-13,0.009554687667504188,0.008977179837958777,1.2328134482989268e-14,-1.229739811353005e-13,1.8232397854293926e-13,-3.003948324551042e-14,-7.302101081508217e-14,-1.2587015038950378e-13,,1.908124185165149e-13,-1.0020182931117057e-13,1.0095085436817215e-13,0.002693951434863926,4.929273853043971e-14,-3.698990852951314e-14,7.958834234349341e-14,-4.7400392922423866e-15,0.005217832869458798,7.47844645643698e-14,2.8866880704323176e-14,-4.592955002457662e-14,9.549671858217837e-14,0.01880374221147371,0.0002702777790955691,-4.0045328814409894e-14,0.004517955957137051,-1.5356231467152819e-13,2.7459961305607032e-14,0.0002016625262592633,1.1698090044665965e-14,0.0052122892815622025,4.0219934993268533e-14,0.0013317448442118425,,0.0006597751474746289,-1.5448989445660098e-13,,-5.2907372611670066e-14,-2.289796726469987e-13,0.008161648699874069,-1.7683857098475468e-13,2.3048800449447826e-14,0.002726250837763071,-2.7750109170786528e-14,7.780599201716887e-14,-4.514898454051173e-14,0.00031461569639010066,-1.163875240513388e-14,-4.025103921558982e-14,0.004021278340949384,0.0011453726727318056,1.56569519430918e-13,-9.620703498426634e-14,-4.6243107895832826e-14,2.2611375500307665e-13,-4.3104605021287845e-14,2.7887381546143178e-14,3.46333719675938e-14,7.082444864090717e-13,8.039733885441017e-13,-1.4383669514163262e-14,0.0017340041497108652,0.011546947955966209,,-1.833802532155181e-14,7.617177057158582e-14,0.003381330440980295,-7.869191111453513e-14,-1.0933657123915053e-13,2.0700003747531928e-13,7.449662247151786e-14,-1.3131250422270384e-13,4.6864901615197175e-14,,2.7965450948125745e-05,9.489362600567052e-16,0.0019062226229432815,-2.6615158251166877e-14,0.001912670765794521,2.3418855970927433e-13,2.3459128438790556e-13,0.001152314483127675,7.760649091138004e-15,0.003548680489177036,0.0013263294596195215,-9.913131066428439e-14,8.633105489942467e-06,2.6034256120741432e-14,0.0054863373144573785,,-4.823855582637352e-14,0.0005576526534479874,,-1.4410189669504765e-13,-8.561029995467143e-14,-2.6982359797660217e-14,-4.665186697849643e-14,-7.61233775005745e-15,,0.00010569000873215724,0.006291520797232066,0.00045059140259250607,1.0288254440401717e-12,1.1254602380783304e-13,0.011092008578197273,0.0009366932128259449,0.0034662937372324327,-1.3719369243438954e-13,-3.443493482299288e-14,-2.9802815842207644e-14,-3.789563219916018e-14,3.4116064066048156e-12,0.015290130779113413,2.3661470379816666e-12,0.0290453241768557,9.20966288689217e-14,-9.38424344472112e-14,0.00035207068857065395,0.00550672654747889,-2.9561700949070154e-14,-6.505609490780736e-14,-3.387161950396039e-14,0.0074563515619262555,0.00029586283071180537,-1.3180917526810108e-13,0.00353234600137996,1.55633550158677e-13,-1.5720556843396527e-13,-7.944022990870673e-14,-1.0950038698835885e-13,6.012716232340356e-14,3.7065852485618065e-13,0.0011906766395287562,2.5126865138238165e-13,-2.2264127901759301e-13,0.004060359439102265,1.3644893923752525e-12,-8.433402242752183e-14,4.1821698917120977e-13,9.69274712167598e-05,-1.155720177238043e-13,0.0029532286763638152,0.0022020411423069267,0.0008905268802900468,0.00022815164820924746,,0.0003241516912223046,-3.7267347673274645e-14,1.9804047749256174e-13,
2012,,-1.6372695053389779e-13,1.4297868370294107e-12,0.0008664016324182553,,2.8535543584129093e-13,,0.006827110395304478,-7.356166637045333e-14,-8.111384890204125e-14,,1.4117373667056726e-13,-2.3275658203289495e-13,1.1541284328228082e-13,0.0004660823292832234,2.250340071198062e-12,-2.774045033927607e-13,2.387785565635806e-13,2.077702054385419e-14,3.7948329781738384e-14,0.00014328449861328535,-9.410284739944989e-18,-3.106071775868169e-14,0.006747809754205887,1.5830903820576142e-13,0.0009872920560699285,-6.157555006594651e-15,4.149847610203597e-13,5.765641885624027e-15,0.0019474695240486418,0.013199417439576061,-2.7096539526106554e-14,-5.149410043443004e-14,3.759060103416027e-13,-1.3431276514871715e-13,0.004782965991108933,0.002308174779810765,-2.903504585961066e-14,-3.427493496702929e-14,0.004795295064732174,,-9.234154138911684e-14,-5.598903063094856e-14,4.145286444377487e-14,-8.061908811367363e-14,0.016695171367211006,-1.215136609403043e-14,0.0009834355020302077,0.00034053867044929757,-1.957342061738708e-13,1.429248682509903e-14,-7.743075823211693e-14,3.7932347520310973e-13,-1.979763848687479e-13,7.78738250907687e-14,0.027087998367719163,4.916482539725675e-13,,-6.629012198567546e-14,-1.7398140797661022e-14,4.9869388397286144e-14,0.0030810479711021457,6.984092462722945e-14,0.0016944374769577186,0.0063737401790385055,0.0014358911006579606,-2.432833073786816e-14,8.184354394511234e-16,0.0014812823693370885,1.5892202863839303e-13,0.00031336410197689893,2.0016766348214337e-13,-5.008001366208858e-13,6.758754496732809e-13,0.003969460838104064,-1.975726550280477e-13,-9.841468973882938e-14,-3.7428626480821323e-14,-1.908142326482181e-13,,-3.6191361052017365e-14,6.2527904329562905e-15,0.004964493108310876,0.0011890225399289278,1.904647313958009e-14,,3.2161878884674304e-12,0.007987444955827053,-1.745716076887605e-13,0.003225064432541671,0.005443017996058612,-8.808619015994732e-15,-7.988908569707818e-14,7.119326885661658e-13,7.921808734100687e-14,0.004004001955207345,,5.293231185308129e-12,1.621608142644899e-13,0.004197940933200268,7.923981187497262e-14,-5.706968639337119e-14,0.0030162987456125614,1.0433130727242812e-13,-5.030290029946822e-14,-1.1146667010336781e-13,-2.4832198240613546e-14,-8.937646228404643e-15,-5.565208736344835e-13,,-1.2132098474977746e-13,-3.4666855284634523e-14,2.84418485041295e-14,5.750459516037571e-14,0.0009197923499748798,1.9162964571800703e-13,0.021637569703532512,-1.270309272598762e-13,4.172509718573597e-13,1.1424962667978757e-13,-5.483560455310583e-14,-9.529236293780232e-14,2.659601869659581e-14,-3.7961488532668606e-13,-8.18652805176936e-14,0.00013677968865513448,0.0020511346324322945,-6.116458694828822e-15,-1.4496910449522357e-13,0.012806370008676848,-5.035848660114139e-14,-9.428306179465163e-14,0.020546482694939416,2.302791569906325e-14,5.83614307602766e-13,8.940251718843933e-14,0.012327971107650796,3.4136807682606783e-13,-8.278577208531257e-14,2.1699351744377198e-13,,2.1458467684758866e-13,9.825882220387808e-05,,4.410072477656607e-14,3.2076468678616893e-15,-6.453492019396682e-14,6.259438555376073e-15,-5.6075174306840333e-14,-1.199092594809817e-13,-2.214972582236944e-14,0.0031106745172094245,-8.612655522455863e-14,-1.4399504264095808e-15,,8.827634018711068e-15,-4.68634792026477e-14,-2.5931434855695966e-14,5.89612739108562e-14,4.07457046662799e-15,-5.0873325015764744e-14,2.580357152021678e-13,6.059480202967532e-14,-2.8889334948150095e-14,2.974145507298566e-14,0.0004902228928485965,,0.006385026952014436,-1.482779777291839e-13,-2.0525870110887182e-13,5.4268092773077106e-14,-2.3964124995201036e-14,,0.004114641669518428,-4.5791473638202716e-14,0.0008024531756367013,,1.2672575290811985e-13,-1.305379306941129e-14,-1.0986493279252178e-13,-9.67273081273743e-14,0.005354803819107962,0.0001560924055371281,-1.2589973062919506e-14,,0.0005215249791931073,0.0010609397687864881,0.004367147155813952,,3.484738730026391e-13,0.007929348052945586,-3.1314492088310984e-14,-3.3489917892218784e-13,-4.599569926720441e-15,4.711370928499353e-13,3.5513415102479857e-13,0.0019095122389517867,1.2305159089869177e-13,5.635639271317055e-13,0.000628468729293709,-5.2005192711558007e-14,0.0021770779165149207,0.006210716064282245,-1.2706488718621083e-13,-1.3682465475964335e-14,5.049203134674897e-13,-1.8072234456722968e-13,-1.3813086964441177e-13,-8.216683251071669e-15,2.782632112918718e-14,2.4251754161559203e-14,1.405114128238348e-13,-1.4962220301368766e-14,0.009742474935982333,0.011751379176447174,-3.922545286144589e-14,0.004394531112496652,7.391390481713682e-05,-3.073838045227752e-13,0.0006734281655415716,1.1057505374972998e-13,5.711748280076338e-14,-7.69756677558048e-14,9.29455560982592e-17,-4.9880796562102623e-14,-3.682011109501024e-14,-6.731456905002736e-14,-1.4159843880041074e-14,-1.1023523809178552e-13,0.01874846521013092,0.0075090759606129855,0.010496843882880146,0.0014140518520974219,-1.5959312512439737e-13,-7.083996610505723e-15,,-9.77055918578414e-14,2.548966156528375e-13,-9.359138203802923e-15,-3.538676163435258e-14,0.002857386193392895,0.0025069821095207497,-1.3393848708163161e-13,0.002607222214515246,0.001069443031847267,0.031922384558132476,2.876845385859771e-14,-7.4109172504388e-14,0.015093094138480064,-6.004324223532253e-14,-6.964957002493529e-14,0.00518828940077092,-1.5193380377452281e-13,1.942511008728951e-13,1.4967597687493108e-12,-7.695711224432553e-14,1.8788644719443808e-12,-6.945652311835573e-14,-9.572445390991677e-15,7.732704694390253e-13,8.408007483875215e-14,-2.7603795384596893e-14,-9.398425624275212e-15,-1.8974654503729935e-13,,-4.144653972187068e-13,,0.001925481729371812,0.02849795732011879,0.020483601906640454,1.4704826103870344e-15,1.2245620609471655e-13,2.180734490623543e-12,1.1064050758066162e-13,-9.035331015872291e-14,8.206218680833639e-13,-1.0242439940342362e-13,0.0319480430134697,-4.773422856751383e-14,0.0055391491659511,0.036531564670767736,1.4331068380025356e-12,0.0017019529850417368,0.0010932234250493119,2.3314501677428915e-15,0.021506875747504428,0.0073299579415082115,-3.7178993211893413e-14,-6.691846717461912e-14,0.009511956751800357,,6.973364353083534e-14,0.001030555484466244,1.6602787214603343e-13,6.92572373744311e-15,-2.320930123584988e-13,0.008070270558643294,-1.1093927442266816e-13,-5.051035275767108e-14,7.127867338209651e-17,0.0003041342450095506,0.010221619786641848,3.483593072831125e-13,-1.6991876522168265e-14,-3.7585606540524125e-14,-2.358783883739597e-13,0.03145318379434221,0.0005319957288541484,-2.3025367809096827e-14,5.704091409082873e-13,6.036016056470976e-14,4.2979230541352814e-13,0.0003469873428705888,0.0023428914591258772,-6.497217782027181e-14,0.005457296983319238,3.928902162880095e-14,0.03330561499157498,0.0025919996290567665,3.2087316170589887e-13,0.017412190688246735,-4.613981301453758e-14,2.956583966748602e-15,0.02840168815322962,0.002011240364671773,0.0021746511828157054,-1.084151633968363e-13,0.0013900801833714664,-1.9467852463997294e-13,0.010185496853326042,0.00481158736598992,1.891126858222542e-13,0.0023756263412423066,-1.0439606432983763e-14,-3.3433286108599613e-14,-2.0657214925230696e-13,1.4715723962077812e-13,0.004756968895938951,0.0003153445961310431,1.3437812723504803e-13,1.7631215796651164e-13,-1.9498775243240797e-13,-1.7250748578887823e-14,7.251832400999845e-14,-4.974166632509126e-14,0.03633609538336006,9.950493484994124e-16,,0.00031203159333611965,0.005966888302509788,2.7168828978114123e-15,0.004443184822355678,6.835033040865336e-14,1.5648191409562946e-13,8.698543024641743e-14,4.477424133417368e-12,5.2050825024299585e-14,-1.0336556795204602e-13,-1.969327327317921e-13,-3.39765729670793e-14,-8.870069628669465e-14,-6.71617321853961e-14,0.0015853313516753613,-4.4786712719414863e-14,0.016576470268764364,-3.8444382104971466e-15,-1.1570755539219568e-14,3.3866098280880874e-13,-5.275116411348718e-14,6.850130908517875e-14,0.013410994520605965,0.0009696176661339478,-2.4301421972655403e-14,-4.721233946834852e-14,2.7177046042818214e-13,-5.324683034113695e-14,0.001999226213925754,-3.716367888058683e-14,-7.98459880200814e-15,0.011117272956575042,0.00012726670637451735,-1.8392366322374715e-13,0.0017043162988166435,1.531117750974071e-14,-4.185262948819051e-14,2.2645050384019843e-13,5.520354244582807e-14,-6.60982560073947e-14,-9.389056168023691e-14,-2.745337644448687e-14,-1.2875609147878081e-13,-1.5963903442144405e-13,0.007552562961135929,,-1.4948276124349974e-13,0.005517805529587623,-1.5647130239245761e-13,,4.285538210432771e-13,-1.2440624701752081e-13,0.000326792151529394,-3.64946182821248e-14,1.6282220550519718e-13,0.0020478878585895783,0.0035714588833495754,4.042470729930667e-14,-7.535306188275709e-14,1.7799004979415378e-14,,0.010869729702681548,3.182409309486099e-14,,8.945727015100226e-13,,4.772626480385863e-14,-2.2941764700785465e-14,8.662895371298834e-13,-8.114636126770851e-14,9.68205151853787e-14,,-3.0634711495519597e-14,0.0036979192040680117,2.2231231266334136e-14,-8.66642561666829e-14,1.878695238577458e-13,2.2485834241311158e-13,,3.220849500469251e-13,5.3336145160788296e-14,0.0059978024181357465,,0.0023330830455198072,0.038594488449938735,,5.161355889562308e-14,2.0339734635194547e-13,0.003362784855929738,-3.025553767724188e-14,4.0541557874379183e-14,1.5008265567846184e-13,-2.150917382221096e-14,,6.024789757917975e-14,5.950736727909726e-14,6.400694953583233e-14,0.00045849455580410266,1.7909227368050437e-15,-1.3818709928806056e-13,-2.714960673924486e-14,2.7435267755941376e-13,1.567988882667599e-13,-9.660118987213532e-14,0.0005918330404470907,0.0005114458501014257,7.041257842432721e-15,0.0006804354970672663,0.0009990485014696802,2.035441267946885e-14,0.02011453685849895,-3.653303445226253e-14,-1.5754644852844856e-13,5.955378023471693e-05,,6.296318633094226e-14,-1.2917923360741976e-13,1.0721540838902195e-13,0.0014610170903688966,-7.407194312570879e-14,,0.0003779077647325776,0.001033036398313289,1.3265103233152182e-13,,3.2680823560494556e-13,0.006981300377684227,0.001089265582402901,0.002106402302960278,,0.0006413598002167821,2.2570490886786503e-14,6.501706047272454e-15,-1.5303464669453285e-13,0.01969110565503264,-8.863160983078886e-15,0.03959028663613558,3.400386819305272e-13,-2.210255227658961e-14,-6.458761857410209e-14,3.32144314538214e-13,-3.647972632676216e-13,7.25992715329084e-14,0.00029860226802856334,-1.9501740708219679e-13,,-4.3337477696741315e-14,0.00028826081336042673,1.029418074875948e-13,-6.95667732627946e-14,1.1429540177041056e-13,-4.966007762025041e-14,1.1222582286530256e-13,3.0576630153197646e-13,0.0021512417594129717,2.1756277978115157e-13,-1.2046799842956817e-13,5.666329449947921e-13,2.9599211368981727e-05,-3.6719325016898344e-17,0.00039632299397239035,2.2635876990744176e-13,-9.98050784685466e-14,0.0035256413554447755,0.00018180906024727113,6.696874358556605e-13,5.758002582217061e-13,,0.00041236111205191736,-1.2634525427119076e-13,8.684032036719678e-14,
2013,,-1.788203000446905e-13,-4.6055346779065474e-14,7.26389254711816e-14,0.001858791196168581,-5.112464892921755e-15,-4.4838735037150826e-14,0.001342536324364453,-1.038382726394347e-13,-1.165823767037197e-13,-5.699755460250728e-14,,-1.5999737942973167e-14,9.64676082106684e-14,0.0032478747070989974,0.0009419085231112655,-9.086971212062063e-14,0.006709551385919508,1.2089537708050583e-13,3.801365983559292e-13,4.830693291124792e-13,-2.0978911182857946e-13,3.34292668901218e-13,3.6126655148636543e-14,-7.319743001255306e-14,0.0004264672708618846,,3.1377602575753165e-14,-1.992923050204779e-13,0.0008261982189279131,,3.931076438223362e-14,-8.849670947933402e-14,1.506642726767875e-13,-1.9702843551347086e-13,2.9275580153833866e-12,-8.278865034747109e-14,4.69510917230996e-15,-3.4219282436438525e-13,0.00384457615803727,2.4232336704173557e-13,-1.078124888955015e-13,-1.3851676527009305e-14,1.9491813881375517e-13,-2.0719452040977436e-13,0.001956859267203486,-1.8029635097262886e-13,0.0005236645065056838,0.0010554070017972238,-1.7895638357076755e-13,-1.7034562978883705e-13,-1.9531377364806314e-13,0.0005555536365765219,-1.9425799215044224e-13,0.008244226693645796,0.02831477335647051,8.992388314883285e-14,1.5771963013039556e-13,-5.37496596114952e-14,-2.6958941560857597e-14,8.600741948218018e-14,0.0007691976677416991,-4.992850548732906e-14,0.006727907755247024,0.0016899198217091315,0.0019244135679889536,-1.3352052146681579e-14,0.0007102028349649834,0.00012194242469079022,-2.588105265601504e-13,7.629189694106756e-13,0.0009029198224390556,-1.9720997154851305e-13,-8.634358306403026e-14,1.1651469081047014e-13,-5.3001123086148377e-14,9.647949288961884e-14,-5.340054271892012e-15,-5.409937074632697e-14,,,-3.241928598078492e-15,0.0013973752302517423,0.0018287650215800327,-5.6583755252562366e-14,-2.767194905781381e-14,2.6187954964461323e-12,0.00027862859853196797,-2.1591550175596455e-13,0.005948780774327088,0.005164863737004165,-2.912734803983617e-13,-1.87309427986762e-13,-1.4070595708689362e-13,-3.231903223039447e-14,,-1.539248696956124e-13,4.489195277618785e-15,-1.2002714856456722e-14,0.0009560540060414909,0.0007317943124754443,-9.511310557272664e-14,0.004533445780425211,4.59757760728922e-13,-2.3212446355719244e-13,-2.0198382583279566e-13,4.8682026090092045e-14,1.0629456464517623e-13,-1.336985474944959e-14,-2.483584525253301e-13,-5.5483769935373104e-14,4.366199477998225e-15,7.274348660323274e-13,7.136533165920088e-14,-3.396579976903314e-14,,0.021756068577417027,-9.153510493454624e-15,1.7197158371900395e-13,0.0004890658250040382,-1.239119653448192e-13,-7.180454665249203e-15,-8.755769390611352e-14,-2.469629784802699e-13,-3.0260094202830594e-14,9.829911499167118e-14,0.009393100010457785,-3.326906385101138e-14,-6.248432528912936e-14,0.005578187862356396,7.147079311182526e-14,7.275051744552701e-14,0.0006423352398701766,2.9871349133926353e-13,5.39797572824206e-14,3.4666944038317883e-11,0.002200984220910538,-1.794913138799153e-14,-8.728400329635759e-14,9.428776353547303e-14,-3.601810094332595e-13,4.644625105189349e-12,8.349072766173406e-13,,-9.710005131317246e-14,-4.371072642396715e-14,0.013599234279017209,4.757156591958199e-13,,-1.6222969895200764e-13,-7.164483046808704e-14,0.0013594486154253228,-6.64392802552397e-14,-8.515698494705155e-14,,-1.228435915670063e-13,1.3079594936311598e-13,6.989153300370324e-14,-1.0726615477176487e-16,5.286386914288932e-15,-2.458165342112261e-13,,-8.150701212836725e-15,,3.1523789605180603e-13,1.9942428299040237e-13,-1.4677018991247819e-13,0.0004903826173920352,-1.723238990112147e-13,-2.168259766950586e-14,-5.408800338132573e-15,-2.6266322663882793e-14,,1.528967890830529e-11,-1.2678499078791383e-13,0.0015721967127272933,,6.391729405392579e-14,1.8481650664471087e-14,-9.953850756009426e-15,-1.2166860160168427e-13,0.0006560498103398767,1.030526690585455e-12,-1.035059720444049e-13,1.5265667002871232e-13,0.00015695575718444925,8.185449600013617e-14,3.4604244417111304e-13,3.462202833776686e-13,-1.4082187712032692e-14,0.010858103275627449,-1.1928383547920692e-13,-1.45738038970804e-13,-2.3665679549906698e-14,1.135749867777291e-12,-1.8757910208320212e-13,6.701743828618727e-13,-5.820651514615677e-14,3.093429502430229e-14,-9.755061124336384e-14,-4.163125098993878e-14,0.002829027485846069,2.6465897788966557e-13,3.005941978712745e-14,-2.0093809404359954e-14,4.795228197346576e-13,-5.436843459290663e-15,-1.491591722227871e-13,,-2.064225332021783e-13,3.3816091360024454e-13,-4.170966669992526e-14,0.010983282728965434,0.003205939354107076,0.0031228756926150653,2.8946854793678527e-13,-4.637380291254843e-15,,-1.5617927522460954e-14,0.0006105619865076164,1.977467779726106e-13,-2.5180512167082124e-14,-2.1337150724773248e-14,-1.455447647035393e-14,-1.2937183467087995e-13,2.1478811962336012e-14,-2.699232702319429e-13,-1.2153603389979263e-14,-2.637284467268038e-13,0.02686607607044529,0.02003599083276963,0.0007966200976294016,0.003354030880671545,-1.6092169482183115e-13,2.2509802993040165e-13,0.0006027761510541975,,-1.0280836455484501e-13,,,4.6768907017296935e-15,0.0014075056416761398,-1.2149446868815873e-13,0.00010248930714299123,-3.109090567994628e-16,0.020972990311781042,0.0007527201129288512,-6.834575013475417e-14,5.850012308029991e-05,1.1555853715724996e-13,-1.857714837407857e-13,0.007894776110726379,0.01351100837152694,2.8291960009437976e-11,0.0006873429141191528,-2.5324388529989663e-14,-4.152912382587361e-13,5.836665034310719e-14,,-3.568836431158395e-14,-2.4625427632633542e-14,-1.9672500521448138e-13,0.007792794895256328,-2.5219258684216512e-14,,-2.99733805049988e-13,-3.4153127275070107e-13,0.0018165652597677577,0.01878522781648512,0.030378287161450183,,1.2706563528344791e-13,0.0004894396958000543,-1.3877101236726718e-13,-3.450907259868885e-13,0.009731224315970047,-3.366047413755764e-15,0.035151156375914525,-1.4668435581716646e-14,0.017727648318936272,0.015342433518532933,0.0013715153364805208,3.1373818060268734e-12,-4.593536267238575e-14,1.2887171824031116e-13,0.00691632979165141,1.1012808076041169e-12,,-2.622667166177479e-13,0.011018590369348803,5.102141622185419e-14,5.423160939842214e-13,-5.5283199453078655e-14,,2.4917232517933326e-14,-3.143756764896832e-13,0.0163514645151165,-2.4606312037868223e-14,0.02445583337969678,-1.6095562878571057e-13,0.01143090417649565,0.0022942768943318963,8.452046655743433e-13,-1.4122158652691644e-14,-4.0922367494742243e-13,-2.0479295554018874e-14,,2.666491906818139e-13,7.50471175385709e-15,-3.5490035085210864e-14,-9.847100008436964e-14,2.5671260300123744e-15,1.63322694644506e-12,5.661479241451312e-14,0.003998648410876819,0.01605128801337214,-3.4249029084295616e-14,0.11934751768620666,0.0014270521920934304,1.9411429343755388e-13,0.011856986930374047,5.3023343348903944e-15,-7.797968411093675e-14,0.05111988997036586,0.01429969640381611,2.5019086955402532e-14,-3.678946015246709e-14,4.115007074775784e-13,-1.9513691896610205e-13,0.011688851231821276,2.051269713789678e-14,3.980615140188339e-14,0.02220585837078105,0.0027501541950179917,0.00100487518843054,-1.2459224088232293e-13,5.687907257564856e-13,3.2329100147182664e-13,7.570973674886801e-13,5.983003504045189e-14,2.4020706111491127e-13,-5.24794832623101e-14,-3.188925390649497e-14,-2.9398860265108524e-14,-1.4272945266503727e-13,0.013117309075415128,0.00914184969299547,,0.0011968855953585402,0.0022615186498181716,2.878993152672984e-12,0.0009677383790318775,-8.793196967662512e-14,-3.093396203082978e-14,1.518463998905258e-13,0.000273149966733042,-3.874721989762601e-14,-4.77326018819774e-14,-2.4488720449429146e-13,0.0024779708562426782,-2.723189589479712e-13,4.897269494758415e-14,0.006334221393922512,-5.6330638955979406e-14,0.024178368359216707,,2.744415314627323e-13,0.0036283360406400905,1.173719648670765e-13,2.5590791297647895e-14,0.0038041275019130415,0.001694055786124905,0.0015014947488682612,-8.73329050711711e-14,-9.620851874744104e-14,-8.352163311380285e-15,0.00024184673271835004,6.599358528404052e-14,,0.0011371744502609818,1.1676329763378545e-14,-2.0233715935647596e-13,0.0007880105797534536,-1.55418724990119e-13,-1.2212395658002088e-13,3.81638656299959e-13,-6.068290557115264e-14,3.144225758727409e-13,-4.871132391177143e-14,-3.6807150813373835e-14,-8.314915574602644e-14,-2.8892913005225676e-14,0.0049491738987405,0.018724396327727388,-2.695054899166517e-14,0.0003945788966522528,-1.549427484175294e-13,1.0449255108759725e-15,-3.6450878046759173e-14,2.041821351400959e-13,-8.677749165227317e-14,-6.922268826483355e-14,4.26224648861151e-05,0.0003214706468903355,1.667303055797075e-13,1.1303169823642858e-13,-1.4276666892190122e-13,1.9509414250082455e-14,-3.4853164186605706e-14,0.006506362376182137,-7.761953501192169e-14,,3.477604319726525e-13,,8.146371114057059e-13,-8.31187406326761e-14,1.076338893126767e-13,-1.8507188163747562e-13,3.065300023774612e-14,9.2461870077254e-15,-2.771745673235362e-13,-3.900305823601609e-14,-1.9323025763458825e-14,-5.6488496087558783e-14,1.277142329009569e-13,9.771493693480664e-14,6.580778364330484e-14,5.0444315875618815e-14,2.4311001123462407e-14,1.4541441943298589e-13,0.004097549397164312,0.0023050902402428114,0.0021783198998286874,,6.276127385014569e-14,-2.153439360716817e-14,0.0009391613971879483,-1.7471216656477907e-13,-2.0315343909079372e-13,-3.254326581878181e-14,-1.69927791680933e-13,-9.089848151975143e-15,1.62877898759113e-13,-2.5546546642224477e-13,-5.435632420225453e-15,-1.758840974441933e-13,2.28585753190535e-13,-1.3390277287863277e-13,0.0008877964148338701,5.4075992317734225e-14,-4.9531585035380926e-14,-1.675439606237316e-13,,0.0009306595640457782,-1.1480626674548905e-13,,0.0006175234371087428,2.549963781713107e-13,0.003880126586492654,-3.252422994229102e-14,-6.14148869606625e-14,3.1900089609593023e-13,-7.476278126860175e-15,-9.500380401984688e-14,-7.115346494462553e-14,4.638228804979091e-14,-9.263339383736085e-14,-1.452421153125436e-13,,5.919089648549367e-14,0.003913265260715666,1.5858870984699847e-13,,4.610302896051917e-13,0.00395790589341374,0.001157532944342273,1.2166101775729097e-13,-1.6511389666345458e-14,1.2626540664363296e-14,-1.0981321800497855e-13,-1.3802624081867562e-13,4.129877516733701e-12,0.0076412101910606,2.7020940842487844e-13,0.020164915554223558,2.745103760967359e-13,-5.435509662412231e-14,-1.8345724314814309e-13,0.00044711311068472594,0.014769963370773525,-1.9698799736275695e-13,2.941060812950811e-13,0.06736675084509895,2.5701882634594224e-13,-2.475256677144312e-13,4.249042615993424e-13,1.7914374018271676e-14,-1.6511502496730565e-13,-1.9320241442279026e-15,-8.265807168763471e-15,8.498079320682172e-05,3.35583676524845e-13,0.003071439637482622,-1.4131626819998845e-13,-3.831729892573104e-14,,7.430791118543614e-14,-2.7809534675844527e-13,1.4228110534009379e-13,0.0032927495154285794,-3.066262476662199e-14,9.213075535494854e-14,0.0038668242983042663,0.0018069727991590128,0.0015423712092174522,3.893253212074994e-13,0.0005113781145097793,-8.119527455520274e-14,1.245403859136041e-13,5.324952520719288e-12
2014,,-1.5444414225610106e-14,5.12665024444706e-14,0.0005003857801411301,4.991109667465767e-13,3.2145210050601323e-14,-2.7492409963446233e-14,-2.4434738887064267e-14,-1.0224535101650097e-14,-9.835500334030017e-14,0.00868841807663345,,-3.165542027831099e-13,1.4708116473288801e-13,0.0017160202681143024,1.4032565005222108e-13,-3.651443718960425e-14,5.4935515666653745e-14,-2.8298309853183186e-14,6.057302201600599e-14,0.008622660687319574,-1.1827068130168962e-14,-1.6603336871327726e-14,0.06525021040097112,-1.6438851019111335e-14,,-5.398777853843094e-14,,-8.437890464188704e-15,0.0015149609543181016,0.055196472873680236,0.00010178103519790409,-3.15740814155005e-14,0.0005608615436026213,-1.0215392335597487e-13,-8.965408972660542e-15,0.0023201234283929412,1.3158524102455603e-13,,6.143465820882484e-14,1.2101815298486465e-13,-9.833276112970484e-14,0.002564802025100778,5.585944843792779e-14,-3.700057579961085e-14,0.0016221396777434704,-2.2526429101823173e-14,0.00260015606688065,0.0060190616714129435,-9.356310370812999e-14,1.7014771704747901e-13,-5.6270373697615086e-14,0.002136568451130805,-4.790613498553896e-14,0.0017662017982412394,0.0181202049289779,0.00014091477032902386,7.953457009256743e-14,-2.7377125990020688e-14,-4.8847187237739115e-14,2.0086747826289536e-14,0.0025868781240615916,6.247938377380843e-15,0.006098133660538449,0.01432803952858204,0.001979979243851003,,,0.0006033653282452578,-1.3393502108847679e-13,0.0001734032149958352,7.857476321304222e-12,-3.0124360493320197e-13,-4.2038238704441004e-14,-1.2900463189727878e-14,-6.624268395683338e-14,1.7101103312790278e-13,,-7.988842467696937e-15,0.004845874148153572,,-3.6820374903740204e-14,0.001413774966707605,0.0003760026409025631,2.5310637109731373e-14,-1.2853331989667995e-14,4.719990076060159e-14,4.1910130483203113e-13,0.0009268698405479187,0.0024739532932294755,0.008361871634688635,-5.5065508690233306e-14,-5.925031875439762e-14,-6.458662464409707e-14,-3.17365008109522e-14,0.0032065446858135995,,0.00023236168920245424,5.084898067287042e-15,0.002052124386342222,4.317175233367817e-15,-2.8173719549430527e-14,0.002917988623659745,-7.395153609676577e-14,-1.0256106187450248e-13,-3.0388227602020154e-14,-2.981104101240382e-14,,-4.981591868036389e-14,0.003413689367737505,-6.076771561513335e-15,1.0559433422101704e-13,2.938641259361876e-14,1.181202208556629e-14,0.001223918116419934,3.133146740329524e-14,0.010950289899159409,-3.1147603280645554e-14,0.0004751629808766672,2.0347434229643333e-13,0.00029103788869304544,-5.056605016968374e-15,-1.3966794446829935e-13,-1.5107807295235713e-13,-2.383886890892672e-14,1.8223148093880142e-14,-1.253658129234817e-14,-4.3549946679878886e-14,-6.491988210501627e-14,0.006477035326036453,-4.225927640964624e-15,-2.658565472093339e-14,0.001571461172957766,2.878848135713116e-14,1.541057429610947e-13,-4.203328399950834e-15,,-5.441361612774033e-15,5.2948440694761987e-14,9.04000760137888e-14,-2.856359379879015e-13,5.9691732823039794e-05,0.001848942000260357,-1.043081976944466e-13,2.8035776563788842e-14,1.3230193023837257e-14,0.0002773713660442722,-7.055032727951696e-15,-1.4654007749648859e-13,-3.7262903743267287e-14,-2.896368939238966e-14,0.0022924541820684165,0.02420733512327009,0.0021540929931053547,,9.163142580808394e-16,6.620028434464796e-14,1.1367603501576001e-15,2.0662981671581194e-14,0.0006121846199385044,2.1954159525005685e-14,,-3.471303078851238e-15,1.199988176544121e-15,4.99347755660868e-16,0.0010766009167665267,1.6248062905595557e-13,0.0010545793827622253,-3.400401901115613e-14,-3.9055911096532667e-14,,1.2020752580142854e-13,-1.2758652124098106e-14,0.0027161779566184205,-4.6812724939298415e-14,0.001393320301068217,-2.970937190867318e-14,-9.432321725528349e-16,1.3535055630810973e-14,-3.5296994289720095e-14,-3.4148818090119056e-14,0.0006013430207109259,4.035455021165413e-13,-2.2110818593371695e-14,-3.7863433220426565e-14,,0.0002331528372792842,2.7887779091491697e-13,0.008636232418592293,-1.984568538160786e-14,0.015523599006610541,-5.233113637258428e-14,-1.141803975577729e-14,,3.228034443857924e-13,-8.149674014288845e-14,8.344692943397682e-14,5.177615802460687e-15,0.0015882638697941164,-4.705136643540274e-14,-2.953211890887337e-14,0.002147923397538665,0.002918087104847608,-2.9348715339040275e-14,,0.003250628907924236,-3.17402719459088e-14,1.0743952118283273e-13,-3.1621919239447173e-13,-4.350264705475152e-14,7.099718394186618e-14,0.0022471571802848184,-5.683196286686066e-15,0.003534854131309281,0.00281493432832446,,-4.132571943651205e-14,0.00037503110656339484,6.1190702335577905e-15,0.0015640922167147258,1.6028805850168335e-13,-2.0544221446158098e-14,1.1719812280667146e-13,,,-2.5461142130907547e-14,-1.204744584008888e-13,-1.7338833752485053e-14,-8.062534120828019e-14,0.01565928148919654,0.012187963126886223,0.012992189711542155,0.0035616002085645726,-1.8260581631022796e-13,0.004105732008621352,0.00016015363621283302,-1.3234048446460904e-14,0.0020144073156744585,,-1.8522529410261484e-13,,1.7742180189212208e-13,-2.0936705637997227e-14,5.549364100574679e-13,0.0006885857034006384,0.02356251507042024,-5.1217144407094086e-14,-3.9776349500703354e-14,0.0030919151474299127,-7.07540527398441e-14,-1.5114353883821316e-13,0.0006680517178947702,6.414962327797186e-13,0.0014785699975421672,0.004180378813251668,-3.451099667823366e-14,-5.104796337808604e-14,-6.464043632535605e-14,-3.854675629915645e-14,7.608805889978673e-16,-7.204986516906257e-15,0.001303145717717602,-1.5840088964893432e-13,,,-3.3048321166202833e-14,,0.0008266222427806693,0.021011962849309347,0.03454758459984445,-4.600484054087028e-13,9.072860045868391e-14,0.00105361716574366,2.2041438543300765e-15,-8.665010996354461e-14,2.2062936149483452e-13,9.022256798420325e-15,0.017020500980373388,-1.3428812077128941e-14,0.057848338339211915,0.022491189973415232,0.002007773113451703,2.898823286743512e-13,5.909631849586916e-13,1.758366209503774e-13,0.0064515034900132755,0.000514257179903236,-1.9577162856254577e-13,0.03758728778382099,0.011183071751879726,1.8476964506412812e-13,-5.684274126304472e-14,0.0007138891196063878,-8.739511716056242e-15,5.611295084545877e-14,-1.1633184397952268e-13,0.015868489751735056,,5.327612175394785e-06,3.865404834644472e-14,0.001539103631186389,0.0011817667712626415,-4.931553312725828e-14,-2.6829236037289508e-14,,-6.84782832929445e-14,,1.6902518710497141e-13,,0.000522605001930976,-1.2867119494262996e-14,3.763286680972785e-14,9.053691748362127e-13,0.0028201455135840074,-2.816759848901385e-14,0.006618015877918031,-1.0214919942854723e-14,0.014893716389828796,0.0008948567139961536,6.016094226126977e-13,0.009672931984413751,-1.2146932474204864e-13,0.0038654588713773514,0.03947362822885713,0.00426066405365432,4.889378198421976e-14,-5.966523460539648e-14,0.0018038688730609416,-3.6677439327381045e-14,0.008739783867100443,-3.6615449706231056e-14,1.753166474481807e-14,0.00825287791895052,-5.247577419799296e-14,-1.7269056865062434e-14,-6.63078030667996e-14,1.5145016941003375e-12,9.43889306509689e-14,0.001262908486021057,-2.879639478555828e-14,0.0002586981941634328,-9.974718913123129e-15,-1.628428636462181e-14,0.008383046347353597,-2.766415113157512e-14,0.016818656645466324,,,0.0025291761582342115,0.001888684547846028,0.001086464151666792,0.0009147673951028375,3.752353093881215e-14,2.6810672576944603e-14,1.227761678478962e-13,5.8121579716744005e-05,2.8099036257933513e-13,-5.974882150062014e-14,-7.264980642792481e-14,0.00014631399069584252,-6.3542918466429454e-15,-6.116263700428434e-14,0.012634188114039668,-3.452371978070796e-14,0.022781402269730678,-1.7381691707037117e-13,-8.674511185259064e-15,9.82641102892484e-14,-3.424297646626467e-14,1.1160051177084425e-14,0.006001058149753635,0.006389662613409207,-1.3366186967388682e-14,-1.218087029327477e-13,-6.985068681985648e-14,-7.142422983378179e-14,3.8510966873511355e-14,4.177951422652877e-14,,0.002309284165734431,-3.1951395497368306e-14,-1.5209189209601937e-13,0.0005501382903661219,7.58411599917921e-15,-8.896803168554232e-14,1.443305163664014e-13,-3.0441845626446584e-14,-2.2581775408477332e-14,-2.845094508744481e-14,-2.842352044184493e-14,-5.784784252674021e-14,1.8405386832993437e-13,0.007851919586480925,0.0019158003358807278,-1.3496376768940925e-13,0.0068998176086840675,-1.083357457907343e-13,0.0011720485071379494,7.509848834219746e-14,2.074797667978975e-12,-8.171202098261888e-15,-1.3417511577997399e-15,4.958412744850753e-13,0.0005509103459306079,5.163859880532028e-13,-7.711869110749857e-14,-1.3769832468750045e-14,-5.33952928012085e-14,,0.008073190302955969,7.567613960257708e-14,,1.298651194707586e-13,0.006531780315177002,-2.936907094742921e-14,-4.364987208984705e-14,0.0013432040228958109,-2.892477755861642e-14,1.0009587305349395e-14,1.0268893946698027e-13,-1.0050490109212979e-13,-2.884599706132965e-14,,-2.1630552425865553e-14,1.0379781991544153e-15,9.125137264166209e-14,2.0952298170731327e-14,-1.6422279913806638e-14,3.250627059035549e-13,5.864642331319809e-13,6.92387286959374e-14,0.003362612089961406,0.011536550143968916,,3.0895555460834496e-15,-1.7856591887405158e-14,0.0022190601576366482,-7.128341828797248e-14,-7.63256367309378e-14,3.0437205492674103e-14,-4.322256297004595e-14,-2.1444441244064603e-14,1.3921338006486037e-16,0.0062955435496515775,0.0012827126092759852,0.00012434296573159704,0.0003971695791061988,-1.711130629131926e-13,-6.856757627103448e-14,3.0892927119740775e-15,-2.99879540631471e-14,-2.5933615383516794e-14,-2.3113224523303332e-14,0.008076988097613626,2.3270564097171e-13,-3.082453275237069e-14,0.0001329369934278724,-8.817359623192919e-15,0.004367825305730869,-1.8345276390376313e-13,-3.486559232201906e-14,1.0798114268490126e-13,,7.01357529665937e-14,-1.62235835022243e-14,-7.660887081491768e-15,0.0009291369193948985,-5.685047978759681e-14,-1.4999857738609916e-14,1.9517924523713773e-13,1.4472727764066348e-05,2.1952770956880257e-14,1.803673386809648e-14,2.0158815028831687e-13,0.004072769433733212,0.0005327518500254995,6.817847056054134e-13,-1.2389278795612548e-14,-4.354916935244867e-14,-9.231993051434378e-15,-1.1640603334064918e-13,,0.0059609393877634795,2.973340610055873e-14,0.045909879897760145,0.001292079758186595,0.0009994544612667903,-3.497659434909249e-14,2.900928411651459e-14,-4.9999748890319427e-14,3.042992091030173e-14,-5.292173641899771e-14,,0.001256692659760425,-1.4612734247959375e-13,0.001565802425676004,2.586507024609381e-13,-2.857049303422593e-14,-6.678045838440331e-14,-2.137076686019562e-13,-2.537158507683153e-15,1.3977252814977833e-13,0.006364386871992674,3.221984714438649e-13,-2.827741897980098e-14,0.00474315689137201,0.00209860779174837,-4.1457797950820713e-14,-4.092254910723343e-14,0.0015567165641879185,2.788628217335972e-14,0.004639759722133975,0.00011408566667982852,0.0013866226857335308,0.001442508195614932,-4.3071231356801566e-14,9.810884081651483e-05,,1.4160711593437453e-13,1.4476522916653772e-14
